Language model created by QuickLM on Sun Apr 12 11:46:18 EDT 2020
Copyright (c) 1996-2010 Carnegie Mellon University and Alexander I. Rudnicky

The model is in standard ARPA format, designed by Doug Paul while he was at MITRE.

The code that was used to produce this language model is available in Open Source.
Please visit http://www.speech.cs.cmu.edu/tools/ for more information

The (fixed) discount mass is 0.5. The backoffs are computed using the ratio method.
This model based on a corpus of 15 sentences and 17 words

\data\
ngram 1=17
ngram 2=30
ngram 3=15

\1-grams:
-0.7782 </s> -0.3010
-0.7782 <s> -0.2218
-1.9542 ба -0.2218
-1.9542 ду -0.2218
-1.9542 мактаб -0.2218
-1.9542 ман -0.2218
-1.9542 меравам -0.2218
-1.9542 нол -0.2218
-1.9542 нуҳ -0.2218
-1.9542 панҷ -0.2218
-1.9542 се -0.2218
-1.9542 сифр -0.2218
-1.9542 чор -0.2218
-1.9542 шаш -0.2218
-1.9542 як -0.2218
-1.9542 ҳафт -0.2218
-1.9542 ҳашт -0.2218

\2-grams:
-1.4771 <s> ба 0.0000
-1.4771 <s> ду 0.0000
-1.4771 <s> мактаб 0.0000
-1.4771 <s> ман 0.0000
-1.4771 <s> меравам 0.0000
-1.4771 <s> нол 0.0000
-1.4771 <s> нуҳ 0.0000
-1.4771 <s> панҷ 0.0000
-1.4771 <s> се 0.0000
-1.4771 <s> сифр 0.0000
-1.4771 <s> чор 0.0000
-1.4771 <s> шаш 0.0000
-1.4771 <s> як 0.0000
-1.4771 <s> ҳафт 0.0000
-1.4771 <s> ҳашт 0.0000
-0.3010 ба </s> -0.3010
-0.3010 ду </s> -0.3010
-0.3010 мактаб </s> -0.3010
-0.3010 ман </s> -0.3010
-0.3010 меравам </s> -0.3010
-0.3010 нол </s> -0.3010
-0.3010 нуҳ </s> -0.3010
-0.3010 панҷ </s> -0.3010
-0.3010 се </s> -0.3010
-0.3010 сифр </s> -0.3010
-0.3010 чор </s> -0.3010
-0.3010 шаш </s> -0.3010
-0.3010 як </s> -0.3010
-0.3010 ҳафт </s> -0.3010
-0.3010 ҳашт </s> -0.3010

\3-grams:
-0.3010 <s> ба </s>
-0.3010 <s> ду </s>
-0.3010 <s> мактаб </s>
-0.3010 <s> ман </s>
-0.3010 <s> меравам </s>
-0.3010 <s> нол </s>
-0.3010 <s> нуҳ </s>
-0.3010 <s> панҷ </s>
-0.3010 <s> се </s>
-0.3010 <s> сифр </s>
-0.3010 <s> чор </s>
-0.3010 <s> шаш </s>
-0.3010 <s> як </s>
-0.3010 <s> ҳафт </s>
-0.3010 <s> ҳашт </s>

\end\
